-1.6207079622000164 -0.18185637790734885 -0.47366718091494503 -1.9176420840062154 -0.009016876473658673 1.6138700466615608 -0.009016990509723122 0.6337509893260103 -0.8337250439973437 0.07126732954894689 0.42866337006859123 0.0009610730242639182 0.01509429427855672 0.5761349517468836 0.01994002621704255 -0.008551862156459224 0.02119685765027681 -0.02138629130279219 0.0962463024700707 0.055737716560070164 -0.044200271205978685 -0.0004575963940468055 -0.02150923123147292 0.0018337983657754928 0.005846947254057699 -0.009179137227217051 0.002394914887035862
-0.7605375650633321 0.11074211549833465 -0.5609479134120757 -0.9303716598388145 -0.0014542604226375926 0.7823744909013282 0.14757480117484878 0.3419908341389982 -0.5622314559610472 0.08694459210023775 0.40028651696835643 0.010964010699482295 0.0008816701849387604 0.6261467764463471 -0.021368360328290172 -0.017918868207423798 0.024320732466774925 0.02056947843111028 -0.10074759872248643 0.01161365926792798 -0.003609035386913482 -0.008903618353551091 0.011614863792962664 -0.06881338015819895 0.22501070900563788 0.005755854476592416 -0.00880072552972827 -0.004434508536862505 0.02672536448282619 0.0064551247687730205 -0.013531500751496266 0.001191737850761955 0.006660125220263733
0.12909472588256735 0.05297163970247127 -0.45792331129430164 -0.5103645169995522 0.5717662917809916 -0.2214903466263995 1.1436388942917624 0.08320494012792143 0.6689449001664572 -0.040526180169176064 0.12720926984578507 -0.49070423952084846 0.10013080232312596 0.4286662097989959 0.452519936056368 -0.00772973248972639 -0.010857302971405785 0.6363084377717222 -0.019675361471617733 0.013453254249682255 0.0936020144064451 -0.002235457049098322 -0.42937135564041445 -0.3245426980438638 0.016035694588707454 0.04187909479809763 0.12581010506145449 0.016196093598047488 -0.004482095490206493 -0.21733466988147787 -0.1060478534813159 0.198477127905019 0.011556478213832232 0.006563367676818335 0.005945813129054055 -0.014451042674557912 -0.0026796145460308432 0.011660626579349432 -0.011138225658740748 -0.03442284075221527 0.018022987924687317 -0.01046517972731442
-1.0016076603536102 0.01762637975883224 -0.41210207150237776 -0.3901512566192583 0.657112311998782 -0.31343458005147923 0.5995744014114014 0.0750576057499651 0.5502508038013161 -0.020016245785033283 -0.048878031224639344 -0.4794552155882255 0.026072464171976874 0.2608243453654784 0.24876163200016999 -0.03282511365490065 0.0020133835976291386 0.49759166675349825 -0.006785196080884314 -0.007065296332212814 0.026190016856866734 -0.01236349238332284 -0.1569431233007144 -0.34424528853004754 -0.0023535018121861027 0.018314766457168195 -0.08093281458522658 0.017062286007360778 0.0006561954646720612 -0.24763392205244708 -0.0762971764766463 0.23966242911009603 -0.004435653694687275 -0.013378077794240757 0.002045147190774746 0.003730122425275875 0.04040185104604968 0.04503198421030897 0.014425292498529413 -0.022853968004412657 0.017419416073954978 0.008725431664876227
